28 64
7 0.018299477 -0.116597936 0.13678153 0.25174373 -0.14061311 -0.21787985 0.02645021 0.21662432 -0.10415543 -0.014093661 0.13885142 -0.06673887 -0.06309996 0.07711412 -0.21753822 -0.008580782 0.15094031 0.21049146 -0.13821086 0.14377813 0.25356054 0.08697941 0.2571554 -0.03683634 0.040723305 0.102507934 -0.2707322 -0.1036657 -0.25809097 -0.29923654 -0.10166099 -0.055481195 -0.03474578 -0.10324921 0.11432055 0.1332609 0.24434893 -0.07444115 0.26336038 -0.04225999 -0.13286886 0.2260935 -0.018975055 -0.059816204 0.012318939 -0.08985057 -0.15045005 0.05830691 -0.024143448 0.07118234 -0.057647716 0.1186584 0.11947692 0.17750508 0.2623053 -0.05716177 0.0076384568 -0.077384695 -0.055201367 0.03948996 0.062449075 -0.17693834 -0.033429503 0.0012378745
8 0.07596099 -0.0627397 0.18056498 0.1045351 0.060877923 -0.04418234 -0.054346845 0.2331256 -0.01580917 -0.044722307 0.16028914 -0.09241547 0.22803456 -0.04244399 -0.1405947 -0.021629788 -0.17603084 0.11649746 -0.04254997 0.12541568 0.13490106 0.15824485 0.26273423 -0.11481108 -0.047570176 0.33806396 -0.12284163 -0.10185254 -0.07773806 0.06282828 0.04659009 0.135105 -0.2494091 -0.20760569 0.11541386 0.080431454 -0.094674006 0.13654806 0.21360436 -0.025113022 0.13919035 -0.020131964 -0.016350845 0.08860766 -0.086470634 -0.08729894 -0.10046078 -0.22543935 -0.06635111 -0.0025734375 0.1984222 -0.060017377 0.1312992 0.19411835 0.005132235 0.06542854 0.000688208 -0.19927613 -0.033558425 -0.24937585 0.13398944 -0.04679831 -0.04430789 0.139355
16 0.00373852 -0.18334538 0.26344693 -0.014031862 -0.050526053 -0.25702578 0.08359797 0.14014979 -0.021460908 0.09513547 0.25309265 0.04548842 0.015088252 0.060170803 -0.2062193 0.090413 -0.16725306 0.25107133 0.079736136 -0.102087 0.18973243 0.07657458 0.19486174 0.0101026045 0.074934155 0.07162107 -0.079568975 -0.11771271 0.047766395 0.042926863 -0.0364763 0.073858954 -0.055210203 -0.053279486 0.067191824 -0.017127374 0.40839052 0.048527725 0.15175875 -0.20041302 0.14015394 0.17315347 -0.044820897 -0.10299354 0.17271547 0.026598852 -0.027406776 -0.2345575 0.093336634 0.17370051 0.15778372 -0.117863536 -0.19113716 0.09769951 0.30912775 0.025601652 0.043638304 -0.20648745 -0.09770529 -0.012245986 0.22381988 -0.24205866 -0.03168672 -0.036430333
24 0.07307885 0.042607322 0.05033919 0.12508841 -0.19425148 -0.18008764 -0.18623163 0.3744222 0.12108694 0.13548309 -0.054993186 0.028899638 0.38125217 -0.019928997 -0.14320815 -0.1662742 -0.071768805 0.23443246 -0.26415908 -0.17761582 0.14219801 -0.16721144 0.26972553 -0.10851952 0.116766214 0.13679492 -0.30093214 -0.22299092 -0.00600961 -0.18708272 -0.18925394 0.23092096 0.013748663 -0.09578245 0.16061153 0.1689206 -0.026331509 0.22722624 0.096025296 -0.054108527 0.13181926 0.041961506 -0.14568263 -0.016967943 -0.096220136 -0.09881948 -0.190901 0.045043286 -0.03975254 0.06229017 0.13577497 0.22838186 0.17237397 0.1635815 0.13730085 0.12517057 0.16246408 0.05100495 -0.021986913 -0.07007176 -0.025148341 -0.08402432 -0.10519846 -0.03414792
17 -0.12748824 -0.17773338 0.068052895 0.14696035 0.029177045 -0.29748073 0.05035676 0.21745047 -0.2125875 0.13671704 0.045358088 0.15396954 -0.030847857 0.049120978 -0.17558925 0.13529335 -0.011802158 0.2998887 -0.08328686 0.14176951 0.39000353 0.08983488 0.20713437 -0.11006196 0.17819749 0.010302664 -0.3371775 -0.21492514 -0.18336117 -0.15730315 -0.038900897 0.04384497 0.11397282 -0.1233723 0.30892 0.22847581 0.2183412 0.0002221677 0.19820394 -0.0258596 0.050715342 0.10810363 0.05319726 0.08069949 -0.0041991393 0.11463604 -0.11111564 -0.030305987 0.05837841 0.12569885 0.043297946 0.22515161 0.32803205 -0.020087225 0.22532696 0.08697763 -0.06592345 0.044895515 0.027482737 -0.077476785 0.12010255 -0.30123198 -0.062839314 0.11236565
12 -0.04310291 -0.028966065 0.440092 0.15263395 -0.21163104 -0.3044695 0.059592623 0.12037978 -0.14116399 -0.2704299 0.3180341 0.058369916 -0.005108584 -0.137301 0.11310102 -0.0035739727 -0.021326322 -0.096357815 -0.014855623 0.23718959 0.052184336 0.039646998 0.19289441 -0.0027133417 0.10984939 0.16210827 -0.056042742 0.13226488 -0.029362952 0.013855353 -0.012513714 -0.0069531044 -0.3314788 -0.2627777 0.12523554 -0.049501617 -0.01217857 0.07729857 0.26062253 0.04084154 0.06954291 0.21702115 0.15810408 -0.109444454 0.0030732977 -0.16944514 0.111734696 0.022125334 0.08335129 -0.045800567 0.25787452 -0.121857524 -0.15919997 0.24401578 0.17233436 0.10726236 -0.038459484 -0.14529875 -0.035535347 0.042355996 0.025190433 -0.081711076 -0.041566357 -0.049105044
13 0.0031212622 -0.12474695 0.46802694 0.06916691 -0.20140475 -0.33943525 -0.0043991683 0.13335237 -0.07163933 -0.21609418 0.30387527 0.058281645 -0.04030452 -0.1377098 0.005414073 -0.031884965 -0.053044576 -0.07072088 -0.11435808 0.19459896 0.1377076 0.03663301 0.15193243 0.03931978 0.05814158 0.19069798 -0.070819505 0.109161966 -0.044955112 -0.02585207 0.062440284 -0.05103854 -0.32434312 -0.15125696 0.05591997 -0.012331869 0.07107166 -0.0068257744 0.25148222 0.18241698 0.09191017 0.16272956 0.15333903 -0.057964444 0.009363035 -0.21524538 0.13730273 0.03957275 0.16614956 -0.20810747 0.20781958 -0.05946168 -0.19229579 0.25622135 0.11813809 0.123132795 0.065003194 -0.091608696 -0.104118794 0.13081254 0.13303469 -0.09194144 -0.014815195 0.067498
4 0.1040175 -0.11117075 0.35981616 0.06771738 0.027451485 -0.14006037 -0.07582707 -0.05929368 -0.1631644 -0.18499981 0.12658846 -0.07941027 -0.08910049 0.12433109 -0.13904476 0.057034716 -0.2246999 0.030720033 0.072146334 0.1263302 0.14753266 0.2216704 0.17845264 0.0983756 -0.053675603 0.34690386 -0.17529021 -0.04610333 -0.2703849 -0.050611496 0.025913337 -0.22638792 -0.13433507 -0.21347477 0.19961537 -0.048760135 0.01512868 -0.045979135 0.1802997 0.0064467266 -0.06686462 0.0014465012 -0.037188284 -0.14751272 -0.039435383 -0.08065037 -0.05583333 -0.19098617 0.022262748 -0.014919232 0.113252886 0.02719111 -0.10924414 0.1843505 0.17645757 0.06755953 -0.059071537 -0.31394958 -0.027666729 0.004339136 0.044759832 -0.20387964 -0.121754274 0.059394956
15 3.731279e-05 -0.238125 0.16282776 -0.3063453 0.05716036 -0.1985069 -0.11772342 0.07430712 -0.15176171 -0.004600223 0.24747881 0.045585897 -0.057484824 0.026032094 -0.15181598 -0.12689263 -0.14021374 0.13631406 0.16702802 -0.10490861 0.102115616 -0.20375584 0.10858312 0.039994545 0.024097774 0.20382692 -0.09692062 -0.135939 0.08610667 -0.14679173 -0.08018987 0.05265893 -0.1660815 -0.119930096 0.18073261 0.24780251 0.06645996 0.075184815 0.056840274 -0.23090912 0.1550677 0.25647458 -0.2835608 -0.118771456 0.26057947 -0.15966111 -0.11649331 -0.31049782 0.16997872 0.17907491 0.07825222 -0.009412087 -0.021587105 0.025717765 0.2644946 0.11510961 -0.025292823 -0.21358043 0.088888735 -0.05279681 0.20727506 -0.09459174 -0.060440075 0.18357487
5 -0.1328981 -0.029371468 0.41934523 0.1390255 0.014486204 -0.40365368 0.032728117 -0.061999608 0.10512133 -0.36682162 0.2342492 0.11503341 -0.025286917 0.014980661 0.13178639 0.21624386 -0.38388708 -0.13930349 0.037577283 0.21881753 0.20074126 -0.0879213 0.18791851 -0.04200602 0.1595867 0.032970443 -0.033905197 0.051310163 -0.012491958 0.15041777 0.06739074 -0.07593827 -0.18873428 -0.18491054 0.14857213 0.0003067542 0.09595905 0.19355705 0.07501486 0.122667216 0.18431914 0.18366598 0.04237789 -0.39559415 0.106034674 -0.18318745 0.24572684 0.08123462 0.2315305 -0.07039773 0.06380624 -0.13303667 -0.17951718 0.15696631 0.28526583 0.27676132 0.18119697 -0.020182593 -0.21420448 0.15242915 -0.129879 -0.25259548 -0.118050665 -0.30218282
18 0.21156941 -0.19158745 0.35172153 -0.18568802 0.04297305 -0.0379207 -0.2901563 0.2137552 0.17964014 -0.044481024 0.09090741 -0.1989762 0.04023663 0.1784225 -0.19371502 -0.042874802 -0.2821159 -0.0637555 -0.22631657 -0.0010031115 0.27764845 -0.097290084 0.14263706 -0.09443227 -0.0093845595 0.13055788 -0.24322133 -0.30248034 -0.008777094 -0.0075238207 -0.105734356 0.16313078 0.06679304 -0.26748386 0.3261411 0.124076225 0.008306978 0.2667576 -0.15101837 0.05139427 0.068454735 -0.09854008 -0.24549225 -0.0586712 0.11545319 -0.029570904 -0.024247568 -0.13022342 0.03340223 0.2431887 -0.086765744 0.24324116 -0.0044589164 -0.019796299 0.089794874 0.27023062 0.097579435 -0.018876279 0.08349745 0.008269617 -0.019648893 0.028893324 -0.03639536 0.06533591
25 0.013016666 0.082780205 0.2790238 -0.028639648 -0.18799128 -0.28149205 -0.16399223 -0.045414407 0.0659538 -0.25502995 0.049472068 0.08308249 0.19249889 -0.13890646 0.008226764 -0.13604552 -0.1343144 0.14578894 0.09359267 0.18272221 0.042663705 0.057382133 0.07366557 0.12007951 -0.08475537 0.2648876 -0.26849866 -0.072400175 0.020815209 0.0021169286 -0.08101934 0.1237761 -0.23426723 -0.057821024 0.060178805 0.05597426 0.04464566 0.19143853 0.15032147 0.22494443 0.3098525 0.0053528706 0.119548336 -0.10122032 0.055094175 -0.21098538 -0.206202 -0.09419445 0.1877709 -0.38306496 0.1109564 0.11059218 0.041747246 0.22064848 0.033970717 0.30623406 0.22989798 0.079735205 -0.09548429 -0.14017254 -0.017640699 -0.0780154 -0.06390101 0.09513817
3 -0.05545681 -0.072516866 0.25736135 0.027216336 0.010758333 -0.14896633 -0.046241306 -0.014419795 -0.009056621 -0.25580853 0.27222124 -0.10152524 -0.049532846 -0.0054054214 -0.08082114 0.03190038 -0.113864176 -0.00025761698 0.11223354 0.26508138 0.0711301 0.07787221 0.06646883 0.06261873 -0.15804492 0.24840893 -0.09997246 -0.060920786 -0.14526981 0.012499088 -0.017073542 -0.09152915 -0.31288937 -0.15343231 0.17236577 0.14269623 0.07628787 0.055751286 0.24244325 -0.081390806 -0.030006794 0.1609796 0.026247604 -0.18898234 0.2319743 -0.22069992 -0.059919655 -0.11765245 0.13564537 -0.034088917 0.061587203 -0.025633086 0.017658774 0.14731252 0.23811243 0.048701376 0.10898224 -0.053571608 -0.010948794 -0.11188631 -0.060005456 -0.17510828 -0.03878261 -0.053288013
10 0.2767264 0.15567942 -0.002777199 0.22863978 -0.021048835 0.03443562 -0.01465253 0.12055424 0.04432927 0.09067191 -0.08029019 -0.21101111 0.1951609 -0.0444096 -0.06356764 0.021010201 -0.19528267 0.0863811 -0.09482584 0.037821848 0.18661043 -0.16361715 0.18168904 -0.20193724 0.0068336464 0.11952651 -0.12944913 -0.4329032 -0.06456724 -0.15745199 0.11271926 0.21219839 -0.29132488 -0.123004735 0.06651578 0.43790793 -0.100296795 0.38965777 -0.11275846 -0.13110396 0.24505155 0.20255725 -0.1079819 -0.10525313 -0.17974925 -0.3339402 -0.47520682 -0.27055302 0.02226524 -0.052680127 0.26641068 0.099263206 0.36275 0.16939427 0.2540077 -0.12782517 0.0012154325 0.08499914 -0.23352998 -0.22381459 0.02574376 -0.21413827 0.13387549 0.12558848
27 0.11211154 0.1921225 0.25586867 0.039312806 -0.22156826 -0.261152 -0.20041125 0.15429613 -0.039710686 -0.3270973 -0.14289187 0.08920164 -0.023688667 -0.15448205 0.10289047 -0.20966016 -0.08206323 0.034113225 -0.07132852 0.2285524 0.1462604 -0.06979208 0.19466466 -0.10726997 0.008294817 0.25553277 -0.32749212 -0.02043999 0.2027208 -0.09311887 -0.23122418 0.26919633 -0.085353985 -0.11584664 0.17498943 0.061834678 0.057776093 0.39752862 0.019645428 0.24412644 0.23219028 -0.038868196 0.21902671 0.064372435 -0.1550217 -0.028141377 -0.18149252 -0.14736709 -0.047645662 -0.23310131 0.10908684 0.0943218 0.17577791 0.35866365 0.06308536 0.27566957 0.029807698 -0.024242535 -0.09001887 -0.257331 -0.07826024 -0.097605206 0.0039389147 0.006380891
26 -0.05954134 0.18293943 0.38561574 0.04911691 -0.33726618 -0.2928869 -0.20303406 -0.055496514 0.07064808 -0.20602702 0.07859755 0.20348005 0.06748487 -0.20743693 0.029770864 -0.20411871 -0.029587632 0.0857344 0.03535867 0.14905933 -0.013980146 -0.050553896 0.12474656 0.16046217 -0.00087548554 0.2194765 -0.31572112 -0.041781556 0.079914734 -0.06773302 -0.24403204 0.07226544 -0.16535741 -0.050969668 0.22115856 -0.07903947 -0.09102757 0.20594268 0.2996491 0.15084633 0.22412442 0.048740115 0.1712871 -0.20800307 -0.056514457 -0.20574412 -0.1543191 0.022028973 -0.013867157 -0.3272955 0.33785462 0.041809194 0.07204928 0.24021822 0.12422478 0.26495838 0.0883198 -0.035580583 0.014476783 -0.08811065 -0.12546481 -0.09628463 -0.032624308 -0.031657103
23 -0.019519458 -0.22622508 0.29895237 -0.13357003 -0.00012891475 -0.24089904 -0.086051136 0.11585284 0.16734627 0.014843969 0.42059582 -0.12381333 -0.10160877 -0.08944941 0.04494086 0.10204032 -0.3132268 -0.19103743 -0.15792002 0.107473336 0.26164737 -0.102331236 0.022254942 0.10680372 0.034532838 0.00596313 -0.062859245 -0.11813022 0.14195812 0.21338098 -0.08505695 0.0656092 -0.10395832 -0.20614992 0.09170173 0.25356328 0.21474327 0.30912343 0.10093103 -0.0519224 0.02061314 0.08136599 -0.1562908 -0.487576 0.31890035 -0.08186849 0.18525915 0.097272694 0.24326578 0.21359874 0.18369554 0.15161842 -0.10255807 0.07942273 0.2783786 0.18329634 0.2786975 0.057535663 0.003087324 0.24355653 -0.06653729 -0.029146006 -0.009499738 -0.056080353
20 0.24054375 -0.15868938 0.32705086 -0.050448842 0.048820708 0.05226259 -0.17373104 0.17131981 -0.069227286 -0.18379271 0.10524228 -0.24017447 0.24566229 0.27425504 -0.14645043 0.035273947 -0.05949813 -0.02624532 -0.029612573 0.14914775 0.008110594 -0.09090017 0.29129544 -0.017008204 -0.015580529 0.24980415 -0.07465442 -0.27916658 -0.2822663 -0.24309564 0.06754522 -0.04187475 -0.3078729 -0.38615867 0.27383038 -0.026411975 -0.18756159 -0.06593107 -0.06164679 0.043184847 0.13178714 0.09466466 -0.13433878 0.04846246 0.054262295 -0.22777236 -0.031831395 -0.22621596 0.07962948 0.17138353 -0.12754743 0.0044232155 -0.12949519 0.042341873 0.09491491 0.26589075 -0.029131869 -0.14320776 0.20450127 -0.1104442 0.1260429 0.032877874 -0.06735203 0.13572
22 0.102813445 -0.07404625 0.28251964 0.15191078 -0.08294523 -0.17113234 -0.045209087 0.00820054 0.03667504 -0.108726405 0.16358918 -0.021753712 -0.08919737 0.04605159 -0.03206567 0.10517603 -0.047210865 0.060102653 -0.07094564 0.34957793 0.1616448 0.0794583 0.169407 0.17362398 -0.0489162 0.15140995 -0.1924908 -0.103975214 -0.11484003 -0.0025138487 -0.016946116 -0.14671944 -0.12609072 -0.060356714 0.07909488 -0.1327852 0.1487057 0.0019154403 0.41665202 0.12709227 -0.028366514 0.112123795 0.29739222 -0.24143057 -0.116377115 -0.27887353 0.024656445 -0.009074285 0.015897956 -0.19637655 0.24903993 -0.109568834 -0.016463654 0.21345697 0.18906532 0.16505976 0.15061755 -0.14852875 -0.042835113 -0.030648425 -0.026918478 -0.23059073 -0.09812709 -0.11140218
6 -0.103078716 -0.1036764 0.10081781 0.1172315 0.09743551 -0.12178834 -0.011396327 0.24683583 -0.09644632 0.17509219 -0.048995703 0.11099874 -0.04391657 0.08419037 -0.24164589 0.11767076 -0.015081488 0.18709026 -0.10014414 0.030919282 0.0065333485 -0.084479004 0.30549756 0.075366735 0.013343695 0.26476306 -0.19812812 -0.18501627 -0.2134423 -0.25541893 0.06022802 -0.04832288 -0.22618973 -0.082564555 0.23728919 0.0032007445 0.20729281 -0.0751536 0.2636963 -0.10350025 0.032639123 0.07269585 0.07739676 -0.031941637 -0.037480894 -0.059423026 0.09773116 -0.04676511 -0.062536985 0.1970541 0.20834717 -0.054343395 0.054867733 0.17711887 0.26222304 0.23335044 0.031904493 -0.23744255 0.012160601 0.03582873 0.12960523 -0.2165243 -0.15034328 0.11288622
14 -0.15525343 -0.13520792 0.036055967 0.28891617 -0.03916261 -0.21212222 0.106671296 0.33232576 -0.08379138 0.26654646 0.0067483415 -0.031646095 0.1825418 0.06709994 -0.2171072 0.23186684 0.23058243 0.4385388 -0.047880284 0.22326729 0.14482617 0.24735714 0.18934302 0.015976943 0.012003601 -0.0073027844 -0.4498888 -0.34697142 -0.32469234 -0.14606112 -0.11781559 0.21841998 -0.036254454 -0.12371596 0.31882316 0.046954982 0.5319205 -0.033778388 0.2806057 -0.17173517 -0.0075649065 0.12728369 0.26099706 0.16058646 0.11096551 0.1964379 -0.1105239 0.04211575 -0.0062345364 0.35052338 0.02956992 0.102770135 0.21276426 -0.026538108 0.256906 0.25605497 0.0054432983 0.092310876 -0.005792602 -0.09624273 0.075101584 -0.19369625 -0.064214826 0.07061928
21 -0.15383977 -0.26396608 -0.001840319 0.15040797 0.07644649 -0.31546333 0.04097975 0.24628487 -0.16606826 0.17580688 0.08225572 0.14158723 0.1000132 0.08148878 -0.25456366 0.23149583 0.16466989 0.47162595 0.04402972 0.29942217 0.38851058 0.09002277 0.31924042 -0.01886344 0.15785661 0.0019012865 -0.37914687 -0.22644845 -0.3143535 -0.12496592 0.025111139 0.13767543 0.06476478 0.018368132 0.28012252 0.06792888 0.31852025 -0.13526566 0.4103538 -0.059735224 -0.04573143 0.2842926 0.16863655 0.10001673 0.056523032 -0.0184413 0.01568788 0.12078286 -0.0067277453 0.15985408 -0.102515 0.04559573 0.31734842 -0.03948465 0.1500572 0.22397174 0.06962992 0.1280262 0.028669735 -0.1949034 0.1590439 -0.2825728 -0.051412914 0.040973667
28 0.33315292 -0.26912528 0.34066898 -0.15469639 -0.07014639 -0.30755052 -0.16104199 0.20441556 0.10527802 -0.013439627 0.21724495 -0.19649856 0.18889531 0.15955164 0.09220128 0.08210214 -0.28657553 -0.005310954 -0.0037397514 -0.052106604 0.38928565 -0.14997208 0.053516883 -0.0800232 0.22875224 -0.1352393 -0.16743444 -0.19535032 0.14119154 0.14023848 -0.11702511 0.17830202 0.18384841 -0.23510437 0.1837833 0.07803705 0.04894471 0.27940685 -0.14564975 -0.18230031 -0.017333966 0.28341717 -0.17850408 -0.23114613 0.03689632 -0.114489175 -0.018232193 -0.07688134 0.17849638 0.33643612 0.014503863 -0.0016214659 -0.26492742 -0.07982333 0.235821 0.23229419 -0.03468052 -0.06218195 -0.08272815 0.053657077 -0.01509619 -0.02537449 -0.102070756 -0.20258121
1 0.46063662 -0.26533824 0.21822639 -0.23069496 0.20810662 -0.13624911 -0.29597577 0.15936008 -0.14453578 -0.05425847 -0.03934226 -0.31224856 0.25934172 0.16465577 -0.059069056 -0.07942871 -0.24498318 -0.0028464822 0.079429366 0.03843246 0.19838202 -0.059346132 0.16911031 -0.026466312 -0.0032639685 0.32355115 -0.38297945 -0.073175125 -0.22783436 -0.039586533 0.12618975 0.19330108 -0.10151932 -0.22661613 0.17918119 0.07820315 -0.14746518 0.1733196 -0.097070605 -0.012081121 -0.14717105 0.11434084 -0.28373256 -0.12119677 -0.16889305 -0.20015812 0.055228677 -0.118325226 -0.011636578 0.37009862 -0.15102662 0.2087115 -0.22561648 0.055646103 -0.0059521273 0.3843273 0.0259716 -0.22315817 -0.049723234 0.02064479 0.08340812 0.07430373 -0.25417992 0.23097552
19 0.2228781 -0.16013971 0.024407927 0.10857588 0.016226323 -0.109796144 -0.12070753 0.2896918 0.051682472 0.23870134 -0.103467286 -0.040782467 -0.11993703 0.07078154 -0.20298521 0.017439337 0.014414626 0.19734858 -0.34140512 0.12761687 0.40079075 -0.12833571 0.26744577 -0.020293202 0.086371936 0.03772036 -0.30652082 -0.35053805 0.021944968 -0.28082848 -0.053222958 0.07967676 0.112530336 -0.009143661 0.06790499 0.17467047 0.20849025 0.11079192 0.17214629 0.14496696 0.10964005 0.022352688 0.0800119 -0.05654712 -0.23887326 -0.13450854 -0.17558303 -0.06574955 -0.060253754 -0.056978177 0.11781626 0.10916411 0.31655893 0.1626737 0.17074151 0.12978429 0.049289823 -0.09639393 -0.057943836 -0.01683291 0.1516202 -0.14873438 -0.0014296151 0.16788028
2 -0.14840561 -0.24227536 0.27205527 -0.07344221 0.004277507 -0.19556764 -0.06855925 0.21096972 0.07773208 0.002026621 0.35712367 -0.057971135 -0.04485665 0.032221004 -0.26347673 0.007905758 -0.30871722 0.14499345 0.011385077 -0.2061355 0.28299293 0.22086087 0.101319276 -0.0346473 -0.024494322 0.27966753 -0.031822708 -0.13076745 0.04195024 0.06323022 -0.19574653 -0.018855 -0.013740198 -0.20262152 0.17385785 0.24714305 0.18227176 0.09080307 0.08869288 -0.3358238 0.085227616 0.00071703 -0.30582505 -0.0052688215 0.33077127 0.1550463 -0.20268236 -0.2555786 0.14126286 0.106910765 0.108963065 -0.09605068 0.030353969 0.09788092 0.23100467 -0.033419956 -0.080847114 -0.2977948 -0.09373889 -0.06773959 0.15065819 -0.033682633 0.0007788085 0.05793846
9 0.22969602 0.05649144 -0.10404809 0.2802717 0.103457324 0.02327014 -0.015466275 0.5168128 0.07831272 0.013653502 -0.0903332 -0.22334327 0.44539723 -0.087448634 -0.119936004 -0.18202798 -0.13956764 0.07447278 -0.38075715 -0.0314548 0.077547 -0.19320755 0.118464366 -0.3920184 -0.106187984 0.14207114 -0.10171294 -0.25698683 0.06782289 -0.07469007 0.08168049 0.27669582 -0.3727282 -0.17522258 0.102514975 0.45336753 -0.1137723 0.3284697 0.11741238 -0.0990078 0.20902161 0.00081944844 0.089630306 0.19772589 -0.17909819 -0.39841285 -0.3232761 -0.35556248 0.11041566 9.954962e-05 0.26614675 0.13642578 0.3499155 0.16297045 0.2488101 -0.24991463 0.17345682 0.077889785 -0.11495989 -0.3525205 -0.026329558 -0.3423225 -0.108873546 -0.054431975
11 0.021672456 -0.023236535 0.34240007 0.14152946 -0.13599364 -0.31823218 0.13819371 -0.03474058 -0.20567173 -0.17712437 0.29758918 -0.11711864 0.17200063 -0.11725607 0.3560106 0.23873058 -0.23647341 -0.2680107 0.019608537 0.13484976 0.06916866 0.032591555 0.17995755 0.24766433 0.23285688 -0.0619628 0.02151471 -0.016307123 0.023723634 0.18138203 -0.06513933 0.027473854 -0.29467845 -0.37211335 -0.0050759334 -0.0121198855 0.21871156 0.27333814 0.09790763 0.07217082 0.32101083 0.0047340817 0.11266221 -0.5922189 0.1507858 -0.025596656 0.2197478 0.08175838 0.39572212 0.11854823 0.2512401 0.12606667 -0.32520533 0.20583917 0.41498154 0.2189663 0.31170017 0.019437319 0.0651647 0.18378991 -0.013257608 -0.18990836 -0.024386944 -0.14258212
